digraph Tree {
node [shape=box, style="filled", color="black", fontname="helvetica"] ;
edge [fontname="helvetica"] ;
0 [label="job_category_Data Analysis <= 0.943\nentropy = 0.991\nsamples = 7484\nvalue = [4151, 3333]\nclass = 0", fillcolor="#fae6d8"] ;
1 [label="employee_residence_United States <= -1.066\nentropy = 1.0\nsamples = 6309\nvalue = [3147, 3162]\nclass = 1", fillcolor="#feffff"] ;
0 -> 1 [labeldistance=2.5, labelangle=45, headlabel="True"] ;
2 [label="experience_level_Senior <= -0.489\nentropy = 0.692\nsamples = 841\nvalue = [685, 156]\nclass = 0", fillcolor="#eb9e66"] ;
1 -> 2 ;
3 [label="experience_level_Executive <= 2.8\nentropy = 0.378\nsamples = 451\nvalue = [418, 33]\nclass = 0", fillcolor="#e78b49"] ;
2 -> 3 ;
4 [label="company_location_Canada <= 3.07\nentropy = 0.303\nsamples = 427\nvalue = [404, 23]\nclass = 0", fillcolor="#e68844"] ;
3 -> 4 ;
5 [label="employee_residence_Australia <= 10.455\nentropy = 0.232\nsamples = 397\nvalue = [382, 15]\nclass = 0", fillcolor="#e68641"] ;
4 -> 5 ;
6 [label="job_title_Data Engineer <= 0.627\nentropy = 0.187\nsamples = 386\nvalue = [375, 11]\nclass = 0", fillcolor="#e6853f"] ;
5 -> 6 ;
7 [label="employee_residence_United Kingdom <= 2.172\nentropy = 0.248\nsamples = 266\nvalue = [255, 11]\nclass = 0", fillcolor="#e68642"] ;
6 -> 7 ;
8 [label="entropy = 0.13\nsamples = 166\nvalue = [163, 3]\nclass = 0", fillcolor="#e5833d"] ;
7 -> 8 ;
9 [label="entropy = 0.402\nsamples = 100\nvalue = [92, 8]\nclass = 0", fillcolor="#e78c4a"] ;
7 -> 9 ;
10 [label="entropy = 0.0\nsamples = 120\nvalue = [120, 0]\nclass = 0", fillcolor="#e58139"] ;
6 -> 10 ;
11 [label="work_setting_In-person <= -0.23\nentropy = 0.946\nsamples = 11\nvalue = [7, 4]\nclass = 0", fillcolor="#f4c9aa"] ;
5 -> 11 ;
12 [label="entropy = 0.0\nsamples = 6\nvalue = [6, 0]\nclass = 0", fillcolor="#e58139"] ;
11 -> 12 ;
13 [label="entropy = 0.722\nsamples = 5\nvalue = [1, 4]\nclass = 1", fillcolor="#6ab6ec"] ;
11 -> 13 ;
14 [label="job_category_Data Engineering <= 0.603\nentropy = 0.837\nsamples = 30\nvalue = [22, 8]\nclass = 0", fillcolor="#eeaf81"] ;
4 -> 14 ;
15 [label="work_setting_In-person <= -0.23\nentropy = 0.61\nsamples = 20\nvalue = [17, 3]\nclass = 0", fillcolor="#ea975c"] ;
14 -> 15 ;
16 [label="job_title_Data Scientist <= 0.688\nentropy = 0.722\nsamples = 15\nvalue = [12, 3]\nclass = 0", fillcolor="#eca06a"] ;
15 -> 16 ;
17 [label="entropy = 0.918\nsamples = 6\nvalue = [4, 2]\nclass = 0", fillcolor="#f2c09c"] ;
16 -> 17 ;
18 [label="entropy = 0.503\nsamples = 9\nvalue = [8, 1]\nclass = 0", fillcolor="#e89152"] ;
16 -> 18 ;
19 [label="entropy = 0.0\nsamples = 5\nvalue = [5, 0]\nclass = 0", fillcolor="#e58139"] ;
15 -> 19 ;
20 [label="work_setting_Remote <= 0.276\nentropy = 1.0\nsamples = 10\nvalue = [5, 5]\nclass = 0", fillcolor="#ffffff"] ;
14 -> 20 ;
21 [label="entropy = 0.971\nsamples = 5\nvalue = [3, 2]\nclass = 0", fillcolor="#f6d5bd"] ;
20 -> 21 ;
22 [label="entropy = 0.971\nsamples = 5\nvalue = [2, 3]\nclass = 1", fillcolor="#bddef6"] ;
20 -> 22 ;
23 [label="job_title_Director of Data Science <= 9.633\nentropy = 0.98\nsamples = 24\nvalue = [14, 10]\nclass = 0", fillcolor="#f8dbc6"] ;
3 -> 23 ;
24 [label="job_title_Data Scientist <= 0.688\nentropy = 0.852\nsamples = 18\nvalue = [13, 5]\nclass = 0", fillcolor="#efb185"] ;
23 -> 24 ;
25 [label="job_category_Data Science and Research <= 0.375\nentropy = 0.722\nsamples = 15\nvalue = [12, 3]\nclass = 0", fillcolor="#eca06a"] ;
24 -> 25 ;
26 [label="company_size_M <= -1.349\nentropy = 0.845\nsamples = 11\nvalue = [8, 3]\nclass = 0", fillcolor="#efb083"] ;
25 -> 26 ;
27 [label="entropy = 0.918\nsamples = 3\nvalue = [1, 2]\nclass = 1", fillcolor="#9ccef2"] ;
26 -> 27 ;
28 [label="entropy = 0.544\nsamples = 8\nvalue = [7, 1]\nclass = 0", fillcolor="#e99355"] ;
26 -> 28 ;
29 [label="entropy = 0.0\nsamples = 4\nvalue = [4, 0]\nclass = 0", fillcolor="#e58139"] ;
25 -> 29 ;
30 [label="entropy = 0.918\nsamples = 3\nvalue = [1, 2]\nclass = 1", fillcolor="#9ccef2"] ;
24 -> 30 ;
31 [label="work_setting_In-person <= -0.23\nentropy = 0.65\nsamples = 6\nvalue = [1, 5]\nclass = 1", fillcolor="#61b1ea"] ;
23 -> 31 ;
32 [label="entropy = 0.0\nsamples = 3\nvalue = [0, 3]\nclass = 1", fillcolor="#399de5"] ;
31 -> 32 ;
33 [label="entropy = 0.918\nsamples = 3\nvalue = [1, 2]\nclass = 1", fillcolor="#9ccef2"] ;
31 -> 33 ;
34 [label="company_location_Spain <= 4.451\nentropy = 0.899\nsamples = 390\nvalue = [267, 123]\nclass = 0", fillcolor="#f1bb94"] ;
2 -> 34 ;
35 [label="company_location_Canada <= 3.07\nentropy = 0.94\nsamples = 339\nvalue = [218, 121]\nclass = 0", fillcolor="#f3c7a7"] ;
34 -> 35 ;
36 [label="employee_residence_United Kingdom <= 2.172\nentropy = 0.85\nsamples = 214\nvalue = [155, 59]\nclass = 0", fillcolor="#efb184"] ;
35 -> 36 ;
37 [label="job_title_Research Engineer <= 3.905\nentropy = 0.663\nsamples = 122\nvalue = [101, 21]\nclass = 0", fillcolor="#ea9b62"] ;
36 -> 37 ;
38 [label="job_title_Data Scientist <= 0.688\nentropy = 0.616\nsamples = 118\nvalue = [100, 18]\nclass = 0", fillcolor="#ea985d"] ;
37 -> 38 ;
39 [label="entropy = 0.661\nsamples = 105\nvalue = [87, 18]\nclass = 0", fillcolor="#ea9b62"] ;
38 -> 39 ;
40 [label="entropy = 0.0\nsamples = 13\nvalue = [13, 0]\nclass = 0", fillcolor="#e58139"] ;
38 -> 40 ;
41 [label="entropy = 0.811\nsamples = 4\nvalue = [1, 3]\nclass = 1", fillcolor="#7bbeee"] ;
37 -> 41 ;
42 [label="work_year <= -0.502\nentropy = 0.978\nsamples = 92\nvalue = [54, 38]\nclass = 0", fillcolor="#f7dac4"] ;
36 -> 42 ;
43 [label="entropy = 0.0\nsamples = 12\nvalue = [12, 0]\nclass = 0", fillcolor="#e58139"] ;
42 -> 43 ;
44 [label="job_title_Data Architect <= 3.193\nentropy = 0.998\nsamples = 80\nvalue = [42, 38]\nclass = 0", fillcolor="#fdf3ec"] ;
42 -> 44 ;
45 [label="entropy = 0.998\nsamples = 72\nvalue = [34, 38]\nclass = 1", fillcolor="#eaf5fc"] ;
44 -> 45 ;
46 [label="entropy = 0.0\nsamples = 8\nvalue = [8, 0]\nclass = 0", fillcolor="#e58139"] ;
44 -> 46 ;
47 [label="job_category_BI and Visualization <= 2.535\nentropy = 1.0\nsamples = 125\nvalue = [63, 62]\nclass = 0", fillcolor="#fffdfc"] ;
35 -> 47 ;
48 [label="company_size_L <= 1.526\nentropy = 0.998\nsamples = 118\nvalue = [56, 62]\nclass = 1", fillcolor="#ecf6fc"] ;
47 -> 48 ;
49 [label="job_title_Data Scientist <= 0.688\nentropy = 0.993\nsamples = 113\nvalue = [51, 62]\nclass = 1", fillcolor="#dceefa"] ;
48 -> 49 ;
50 [label="entropy = 0.995\nsamples = 70\nvalue = [38, 32]\nclass = 0", fillcolor="#fbebe0"] ;
49 -> 50 ;
51 [label="entropy = 0.884\nsamples = 43\nvalue = [13, 30]\nclass = 1", fillcolor="#8fc7f0"] ;
49 -> 51 ;
52 [label="entropy = 0.0\nsamples = 5\nvalue = [5, 0]\nclass = 0", fillcolor="#e58139"] ;
48 -> 52 ;
53 [label="entropy = 0.0\nsamples = 7\nvalue = [7, 0]\nclass = 0", fillcolor="#e58139"] ;
47 -> 53 ;
54 [label="job_title_Data Scientist <= 0.688\nentropy = 0.239\nsamples = 51\nvalue = [49, 2]\nclass = 0", fillcolor="#e68641"] ;
34 -> 54 ;
55 [label="job_category_Data Science and Research <= 0.375\nentropy = 0.544\nsamples = 16\nvalue = [14, 2]\nclass = 0", fillcolor="#e99355"] ;
54 -> 55 ;
56 [label="entropy = 0.0\nsamples = 13\nvalue = [13, 0]\nclass = 0", fillcolor="#e58139"] ;
55 -> 56 ;
57 [label="entropy = 0.918\nsamples = 3\nvalue = [1, 2]\nclass = 1", fillcolor="#9ccef2"] ;
55 -> 57 ;
58 [label="entropy = 0.0\nsamples = 35\nvalue = [35, 0]\nclass = 0", fillcolor="#e58139"] ;
54 -> 58 ;
59 [label="experience_level_Mid-level <= 0.753\nentropy = 0.993\nsamples = 5468\nvalue = [2462, 3006]\nclass = 1", fillcolor="#dbedfa"] ;
1 -> 59 ;
60 [label="experience_level_Entry-level <= 2.018\nentropy = 0.977\nsamples = 4628\nvalue = [1902, 2726]\nclass = 1", fillcolor="#c3e1f7"] ;
59 -> 60 ;
61 [label="job_category_Machine Learning and AI <= 0.979\nentropy = 0.969\nsamples = 4445\nvalue = [1761, 2684]\nclass = 1", fillcolor="#bbddf6"] ;
60 -> 61 ;
62 [label="job_category_Data Science and Research <= 0.375\nentropy = 0.985\nsamples = 3664\nvalue = [1570, 2094]\nclass = 1", fillcolor="#cde6f8"] ;
61 -> 62 ;
63 [label="job_title_Data Manager <= 4.283\nentropy = 1.0\nsamples = 1908\nvalue = [963, 945]\nclass = 0", fillcolor="#fffdfb"] ;
62 -> 63 ;
64 [label="experience_level_Senior <= -0.489\nentropy = 1.0\nsamples = 1858\nvalue = [920, 938]\nclass = 1", fillcolor="#fbfdff"] ;
63 -> 64 ;
65 [label="entropy = 0.804\nsamples = 118\nvalue = [29, 89]\nclass = 1", fillcolor="#7abded"] ;
64 -> 65 ;
66 [label="entropy = 1.0\nsamples = 1740\nvalue = [891, 849]\nclass = 0", fillcolor="#fef9f6"] ;
64 -> 66 ;
67 [label="experience_level_Executive <= 2.8\nentropy = 0.584\nsamples = 50\nvalue = [43, 7]\nclass = 0", fillcolor="#e99659"] ;
63 -> 67 ;
68 [label="entropy = 0.632\nsamples = 44\nvalue = [37, 7]\nclass = 0", fillcolor="#ea995e"] ;
67 -> 68 ;
69 [label="entropy = 0.0\nsamples = 6\nvalue = [6, 0]\nclass = 0", fillcolor="#e58139"] ;
67 -> 69 ;
70 [label="job_title_Data Science Consultant <= 7.058\nentropy = 0.93\nsamples = 1756\nvalue = [607, 1149]\nclass = 1", fillcolor="#a2d1f3"] ;
62 -> 70 ;
71 [label="job_title_Data Scientist <= 0.688\nentropy = 0.923\nsamples = 1732\nvalue = [585, 1147]\nclass = 1", fillcolor="#9ecff2"] ;
70 -> 71 ;
72 [label="entropy = 0.857\nsamples = 541\nvalue = [152, 389]\nclass = 1", fillcolor="#86c3ef"] ;
71 -> 72 ;
73 [label="entropy = 0.946\nsamples = 1191\nvalue = [433, 758]\nclass = 1", fillcolor="#aad5f4"] ;
71 -> 73 ;
74 [label="work_year <= -0.502\nentropy = 0.414\nsamples = 24\nvalue = [22, 2]\nclass = 0", fillcolor="#e78c4b"] ;
70 -> 74 ;
75 [label="entropy = 0.0\nsamples = 5\nvalue = [5, 0]\nclass = 0", fillcolor="#e58139"] ;
74 -> 75 ;
76 [label="entropy = 0.485\nsamples = 19\nvalue = [17, 2]\nclass = 0", fillcolor="#e89050"] ;
74 -> 76 ;
77 [label="job_title_Computer Vision Engineer <= 9.181\nentropy = 0.803\nsamples = 781\nvalue = [191, 590]\nclass = 1", fillcolor="#79bded"] ;
61 -> 77 ;
78 [label="work_setting_Remote <= 0.276\nentropy = 0.808\nsamples = 770\nvalue = [191, 579]\nclass = 1", fillcolor="#7abdee"] ;
77 -> 78 ;
79 [label="job_title_Machine Learning Engineer <= 1.308\nentropy = 0.843\nsamples = 557\nvalue = [151, 406]\nclass = 1", fillcolor="#83c1ef"] ;
78 -> 79 ;
80 [label="entropy = 0.682\nsamples = 105\nvalue = [19, 86]\nclass = 1", fillcolor="#65b3eb"] ;
79 -> 80 ;
81 [label="entropy = 0.871\nsamples = 452\nvalue = [132, 320]\nclass = 1", fillcolor="#8bc5f0"] ;
79 -> 81 ;
82 [label="company_size_L <= 1.526\nentropy = 0.697\nsamples = 213\nvalue = [40, 173]\nclass = 1", fillcolor="#67b4eb"] ;
78 -> 82 ;
83 [label="entropy = 0.66\nsamples = 199\nvalue = [34, 165]\nclass = 1", fillcolor="#62b1ea"] ;
82 -> 83 ;
84 [label="entropy = 0.985\nsamples = 14\nvalue = [6, 8]\nclass = 1", fillcolor="#cee6f8"] ;
82 -> 84 ;
85 [label="entropy = 0.0\nsamples = 11\nvalue = [0, 11]\nclass = 1", fillcolor="#399de5"] ;
77 -> 85 ;
86 [label="job_title_Research Scientist <= 2.821\nentropy = 0.777\nsamples = 183\nvalue = [141, 42]\nclass = 0", fillcolor="#eda774"] ;
60 -> 86 ;
87 [label="job_title_Research Analyst <= 7.72\nentropy = 0.727\nsamples = 168\nvalue = [134, 34]\nclass = 0", fillcolor="#eca16b"] ;
86 -> 87 ;
88 [label="company_size_S <= 3.787\nentropy = 0.744\nsamples = 161\nvalue = [127, 34]\nclass = 0", fillcolor="#eca36e"] ;
87 -> 88 ;
89 [label="job_category_Machine Learning and AI <= 0.979\nentropy = 0.762\nsamples = 154\nvalue = [120, 34]\nclass = 0", fillcolor="#eca571"] ;
88 -> 89 ;
90 [label="entropy = 0.719\nsamples = 136\nvalue = [109, 27]\nclass = 0", fillcolor="#eba06a"] ;
89 -> 90 ;
91 [label="entropy = 0.964\nsamples = 18\nvalue = [11, 7]\nclass = 0", fillcolor="#f6d1b7"] ;
89 -> 91 ;
92 [label="entropy = 0.0\nsamples = 7\nvalue = [7, 0]\nclass = 0", fillcolor="#e58139"] ;
88 -> 92 ;
93 [label="entropy = 0.0\nsamples = 7\nvalue = [7, 0]\nclass = 0", fillcolor="#e58139"] ;
87 -> 93 ;
94 [label="work_setting_Remote <= 0.276\nentropy = 0.997\nsamples = 15\nvalue = [7, 8]\nclass = 1", fillcolor="#e6f3fc"] ;
86 -> 94 ;
95 [label="entropy = 0.994\nsamples = 11\nvalue = [6, 5]\nclass = 0", fillcolor="#fbeade"] ;
94 -> 95 ;
96 [label="entropy = 0.811\nsamples = 4\nvalue = [1, 3]\nclass = 1", fillcolor="#7bbeee"] ;
94 -> 96 ;
97 [label="job_title_Data Manager <= 4.283\nentropy = 0.918\nsamples = 840\nvalue = [560, 280]\nclass = 0", fillcolor="#f2c09c"] ;
59 -> 97 ;
98 [label="job_category_Data Management and Strategy <= 6.319\nentropy = 0.933\nsamples = 803\nvalue = [523, 280]\nclass = 0", fillcolor="#f3c4a3"] ;
97 -> 98 ;
99 [label="job_title_Research Scientist <= 2.821\nentropy = 0.94\nsamples = 786\nvalue = [506, 280]\nclass = 0", fillcolor="#f3c7a7"] ;
98 -> 99 ;
100 [label="job_category_Data Quality and Operations <= 6.7\nentropy = 0.927\nsamples = 748\nvalue = [492, 256]\nclass = 0", fillcolor="#f3c3a0"] ;
99 -> 100 ;
101 [label="job_title_Business Intelligence Analyst <= 6.39\nentropy = 0.933\nsamples = 735\nvalue = [479, 256]\nclass = 0", fillcolor="#f3c4a3"] ;
100 -> 101 ;
102 [label="entropy = 0.937\nsamples = 725\nvalue = [469, 256]\nclass = 0", fillcolor="#f3c6a5"] ;
101 -> 102 ;
103 [label="entropy = 0.0\nsamples = 10\nvalue = [10, 0]\nclass = 0", fillcolor="#e58139"] ;
101 -> 103 ;
104 [label="entropy = 0.0\nsamples = 13\nvalue = [13, 0]\nclass = 0", fillcolor="#e58139"] ;
100 -> 104 ;
105 [label="work_setting_Remote <= 0.276\nentropy = 0.949\nsamples = 38\nvalue = [14, 24]\nclass = 1", fillcolor="#acd6f4"] ;
99 -> 105 ;
106 [label="entropy = 0.999\nsamples = 23\nvalue = [11, 12]\nclass = 1", fillcolor="#eff7fd"] ;
105 -> 106 ;
107 [label="entropy = 0.722\nsamples = 15\nvalue = [3, 12]\nclass = 1", fillcolor="#6ab6ec"] ;
105 -> 107 ;
108 [label="entropy = 0.0\nsamples = 17\nvalue = [17, 0]\nclass = 0", fillcolor="#e58139"] ;
98 -> 108 ;
109 [label="entropy = 0.0\nsamples = 37\nvalue = [37, 0]\nclass = 0", fillcolor="#e58139"] ;
97 -> 109 ;
110 [label="experience_level_Senior <= -0.489\nentropy = 0.599\nsamples = 1175\nvalue = [1004, 171]\nclass = 0", fillcolor="#e9965b"] ;
0 -> 110 [labeldistance=2.5, labelangle=-45, headlabel="False"] ;
111 [label="experience_level_Entry-level <= 2.018\nentropy = 0.373\nsamples = 445\nvalue = [413, 32]\nclass = 0", fillcolor="#e78b48"] ;
110 -> 111 ;
112 [label="work_setting_In-person <= -0.23\nentropy = 0.442\nsamples = 338\nvalue = [307, 31]\nclass = 0", fillcolor="#e88e4d"] ;
111 -> 112 ;
113 [label="experience_level_Mid-level <= 0.753\nentropy = 0.245\nsamples = 123\nvalue = [118, 5]\nclass = 0", fillcolor="#e68641"] ;
112 -> 113 ;
114 [label="work_year <= -0.502\nentropy = 0.764\nsamples = 9\nvalue = [7, 2]\nclass = 0", fillcolor="#eca572"] ;
113 -> 114 ;
115 [label="entropy = 0.0\nsamples = 3\nvalue = [3, 0]\nclass = 0", fillcolor="#e58139"] ;
114 -> 115 ;
116 [label="entropy = 0.918\nsamples = 6\nvalue = [4, 2]\nclass = 0", fillcolor="#f2c09c"] ;
114 -> 116 ;
117 [label="company_size_S <= 3.787\nentropy = 0.176\nsamples = 114\nvalue = [111, 3]\nclass = 0", fillcolor="#e6843e"] ;
113 -> 117 ;
118 [label="work_year <= -0.502\nentropy = 0.131\nsamples = 110\nvalue = [108, 2]\nclass = 0", fillcolor="#e5833d"] ;
117 -> 118 ;
119 [label="entropy = 0.0\nsamples = 34\nvalue = [34, 0]\nclass = 0", fillcolor="#e58139"] ;
118 -> 119 ;
120 [label="employee_residence_United States <= -1.066\nentropy = 0.176\nsamples = 76\nvalue = [74, 2]\nclass = 0", fillcolor="#e6843e"] ;
118 -> 120 ;
121 [label="entropy = 0.0\nsamples = 12\nvalue = [12, 0]\nclass = 0", fillcolor="#e58139"] ;
120 -> 121 ;
122 [label="entropy = 0.201\nsamples = 64\nvalue = [62, 2]\nclass = 0", fillcolor="#e6853f"] ;
120 -> 122 ;
123 [label="entropy = 0.811\nsamples = 4\nvalue = [3, 1]\nclass = 0", fillcolor="#eeab7b"] ;
117 -> 123 ;
124 [label="job_title_Data Analyst <= 0.982\nentropy = 0.532\nsamples = 215\nvalue = [189, 26]\nclass = 0", fillcolor="#e99254"] ;
112 -> 124 ;
125 [label="entropy = 0.0\nsamples = 11\nvalue = [11, 0]\nclass = 0", fillcolor="#e58139"] ;
124 -> 125 ;
126 [label="work_year <= -0.502\nentropy = 0.55\nsamples = 204\nvalue = [178, 26]\nclass = 0", fillcolor="#e99356"] ;
124 -> 126 ;
127 [label="employee_residence_Canada <= 3.079\nentropy = 0.713\nsamples = 46\nvalue = [37, 9]\nclass = 0", fillcolor="#eba069"] ;
126 -> 127 ;
128 [label="company_size_M <= -1.349\nentropy = 0.75\nsamples = 42\nvalue = [33, 9]\nclass = 0", fillcolor="#eca36f"] ;
127 -> 128 ;
129 [label="entropy = 0.0\nsamples = 4\nvalue = [4, 0]\nclass = 0", fillcolor="#e58139"] ;
128 -> 129 ;
130 [label="entropy = 0.79\nsamples = 38\nvalue = [29, 9]\nclass = 0", fillcolor="#eda876"] ;
128 -> 130 ;
131 [label="entropy = 0.0\nsamples = 4\nvalue = [4, 0]\nclass = 0", fillcolor="#e58139"] ;
127 -> 131 ;
132 [label="employee_residence_United Kingdom <= 2.172\nentropy = 0.493\nsamples = 158\nvalue = [141, 17]\nclass = 0", fillcolor="#e89051"] ;
126 -> 132 ;
133 [label="employee_residence_Estonia <= 15.268\nentropy = 0.53\nsamples = 133\nvalue = [117, 16]\nclass = 0", fillcolor="#e99254"] ;
132 -> 133 ;
134 [label="entropy = 0.538\nsamples = 130\nvalue = [114, 16]\nclass = 0", fillcolor="#e99355"] ;
133 -> 134 ;
135 [label="entropy = 0.0\nsamples = 3\nvalue = [3, 0]\nclass = 0", fillcolor="#e58139"] ;
133 -> 135 ;
136 [label="entropy = 0.242\nsamples = 25\nvalue = [24, 1]\nclass = 0", fillcolor="#e68641"] ;
132 -> 136 ;
137 [label="work_setting_Remote <= 0.276\nentropy = 0.076\nsamples = 107\nvalue = [106, 1]\nclass = 0", fillcolor="#e5823b"] ;
111 -> 137 ;
138 [label="entropy = 0.0\nsamples = 66\nvalue = [66, 0]\nclass = 0", fillcolor="#e58139"] ;
137 -> 138 ;
139 [label="company_size_M <= -1.349\nentropy = 0.165\nsamples = 41\nvalue = [40, 1]\nclass = 0", fillcolor="#e6843e"] ;
137 -> 139 ;
140 [label="entropy = 0.0\nsamples = 18\nvalue = [18, 0]\nclass = 0", fillcolor="#e58139"] ;
139 -> 140 ;
141 [label="job_title_Data Analyst <= 0.982\nentropy = 0.258\nsamples = 23\nvalue = [22, 1]\nclass = 0", fillcolor="#e68742"] ;
139 -> 141 ;
142 [label="entropy = 0.0\nsamples = 3\nvalue = [3, 0]\nclass = 0", fillcolor="#e58139"] ;
141 -> 142 ;
143 [label="entropy = 0.286\nsamples = 20\nvalue = [19, 1]\nclass = 0", fillcolor="#e68843"] ;
141 -> 143 ;
144 [label="employee_residence_Spain <= 4.306\nentropy = 0.702\nsamples = 730\nvalue = [591, 139]\nclass = 0", fillcolor="#eb9f68"] ;
110 -> 144 ;
145 [label="job_title_Data Analyst <= 0.982\nentropy = 0.71\nsamples = 716\nvalue = [577, 139]\nclass = 0", fillcolor="#eb9f69"] ;
144 -> 145 ;
146 [label="company_location_United States <= -1.098\nentropy = 0.991\nsamples = 9\nvalue = [4, 5]\nclass = 1", fillcolor="#d7ebfa"] ;
145 -> 146 ;
147 [label="entropy = 0.722\nsamples = 5\nvalue = [4, 1]\nclass = 0", fillcolor="#eca06a"] ;
146 -> 147 ;
148 [label="entropy = 0.0\nsamples = 4\nvalue = [0, 4]\nclass = 1", fillcolor="#399de5"] ;
146 -> 148 ;
149 [label="company_size_L <= 1.526\nentropy = 0.7\nsamples = 707\nvalue = [573, 134]\nclass = 0", fillcolor="#eb9e67"] ;
145 -> 149 ;
150 [label="work_setting_In-person <= -0.23\nentropy = 0.694\nsamples = 698\nvalue = [568, 130]\nclass = 0", fillcolor="#eb9e66"] ;
149 -> 150 ;
151 [label="company_size_S <= 3.787\nentropy = 0.635\nsamples = 331\nvalue = [278, 53]\nclass = 0", fillcolor="#ea995f"] ;
150 -> 151 ;
152 [label="employee_residence_United Kingdom <= 2.172\nentropy = 0.64\nsamples = 326\nvalue = [273, 53]\nclass = 0", fillcolor="#ea995f"] ;
151 -> 152 ;
153 [label="entropy = 0.632\nsamples = 321\nvalue = [270, 51]\nclass = 0", fillcolor="#ea995e"] ;
152 -> 153 ;
154 [label="entropy = 0.971\nsamples = 5\nvalue = [3, 2]\nclass = 0", fillcolor="#f6d5bd"] ;
152 -> 154 ;
155 [label="entropy = 0.0\nsamples = 5\nvalue = [5, 0]\nclass = 0", fillcolor="#e58139"] ;
151 -> 155 ;
156 [label="company_location_United Kingdom <= 2.15\nentropy = 0.741\nsamples = 367\nvalue = [290, 77]\nclass = 0", fillcolor="#eca26e"] ;
150 -> 156 ;
157 [label="employee_residence_Canada <= 3.079\nentropy = 0.75\nsamples = 350\nvalue = [275, 75]\nclass = 0", fillcolor="#eca36f"] ;
156 -> 157 ;
158 [label="entropy = 0.745\nsamples = 345\nvalue = [272, 73]\nclass = 0", fillcolor="#eca36e"] ;
157 -> 158 ;
159 [label="entropy = 0.971\nsamples = 5\nvalue = [3, 2]\nclass = 0", fillcolor="#f6d5bd"] ;
157 -> 159 ;
160 [label="entropy = 0.523\nsamples = 17\nvalue = [15, 2]\nclass = 0", fillcolor="#e89253"] ;
156 -> 160 ;
161 [label="work_setting_Remote <= 0.276\nentropy = 0.991\nsamples = 9\nvalue = [5, 4]\nclass = 0", fillcolor="#fae6d7"] ;
149 -> 161 ;
162 [label="entropy = 0.918\nsamples = 6\nvalue = [4, 2]\nclass = 0", fillcolor="#f2c09c"] ;
161 -> 162 ;
163 [label="entropy = 0.918\nsamples = 3\nvalue = [1, 2]\nclass = 1", fillcolor="#9ccef2"] ;
161 -> 163 ;
164 [label="entropy = 0.0\nsamples = 14\nvalue = [14, 0]\nclass = 0", fillcolor="#e58139"] ;
144 -> 164 ;
}